function score(input) {
  var var0;
  if (input[3] <= 1.1500000357627869) {
    if (input[1] <= 57.0) {
      if (input[3] <= 0.6500000059604645) {
        var0 = 145.86;
      } else {
        var0 = 99.33444444444444;
      }
    } else {
      var0 = 77.2357142857143;
    }
  } else {
    if (input[3] <= 1.800000011920929) {
      if (input[1] <= 64.0) {
        var0 = 48.74166666666667;
      } else {
        var0 = 65.945;
      }
    } else {
      var0 = 24.0625;
    }
  }
  var var1;
  if (input[3] <= 1.350000023841858) {
    if (input[1] <= 48.0) {
      var1 = 104.17153846153846;
    } else {
      if (input[3] <= 0.8499999940395355) {
        var1 = 88.795;
      } else {
        var1 = 67.70846153846153;
      }
    }
  } else {
    var1 = 37.309999999999995;
  }
  var var2;
  if (input[3] <= 0.949999988079071) {
    if (input[1] <= 41.0) {
      var2 = 134.75666666666666;
    } else {
      if (input[1] <= 60.5) {
        var2 = 104.48571428571428;
      } else {
        var2 = 87.76714285714286;
      }
    }
  } else {
    if (input[3] <= 1.800000011920929) {
      if (input[2] <= 68.29999923706055) {
        var2 = 75.25727272727273;
      } else {
        var2 = 55.553;
      }
    } else {
      var2 = 32.42999999999999;
    }
  }
  var var3;
  if (input[3] <= 1.1500000357627869) {
    if (input[1] <= 59.0) {
      if (input[3] <= 0.6500000059604645) {
        var3 = 132.2025;
      } else {
        var3 = 104.55250000000001;
      }
    } else {
      var3 = 82.63499999999999;
    }
  } else {
    if (input[3] <= 1.800000011920929) {
      if (input[2] <= 68.79999923706055) {
        var3 = 67.35499999999999;
      } else {
        var3 = 57.035000000000004;
      }
    } else {
      var3 = 30.412222222222226;
    }
  }
  var var4;
  if (input[3] <= 1.1500000357627869) {
    if (input[1] <= 48.0) {
      if (input[1] <= 33.5) {
        var4 = 96.92142857142858;
      } else {
        var4 = 125.46285714285716;
      }
    } else {
      if (input[2] <= 69.75) {
        var4 = 88.71333333333334;
      } else {
        var4 = 77.495;
      }
    }
  } else {
    if (input[2] <= 64.85000038146973) {
      var4 = 67.14666666666666;
    } else {
      var4 = 42.962500000000006;
    }
  }
  var var5;
  if (input[3] <= 0.8499999940395355) {
    if (input[1] <= 55.5) {
      var5 = 124.86538461538463;
    } else {
      var5 = 79.96444444444445;
    }
  } else {
    if (input[3] <= 1.800000011920929) {
      if (input[3] <= 1.1500000357627869) {
        var5 = 76.20375;
      } else {
        if (input[2] <= 68.85000228881836) {
          var5 = 68.41666666666667;
        } else {
          var5 = 51.16142857142857;
        }
      }
    } else {
      var5 = 27.19333333333333;
    }
  }
  var var6;
  if (input[3] <= 1.300000011920929) {
    if (input[1] <= 48.0) {
      if (input[1] <= 33.5) {
        var6 = 88.54833333333333;
      } else {
        var6 = 123.91000000000001;
      }
    } else {
      if (input[2] <= 67.29999923706055) {
        var6 = 76.77461538461537;
      } else {
        var6 = 85.8623076923077;
      }
    }
  } else {
    if (input[3] <= 2.050000011920929) {
      var6 = 54.714285714285715;
    } else {
      var6 = 29.544000000000004;
    }
  }
  var var7;
  if (input[3] <= 1.1500000357627869) {
    if (input[1] <= 48.0) {
      if (input[1] <= 33.5) {
        var7 = 89.934;
      } else {
        var7 = 132.74285714285716;
      }
    } else {
      if (input[1] <= 69.5) {
        var7 = 71.33699999999999;
      } else {
        var7 = 84.305;
      }
    }
  } else {
    if (input[3] <= 1.800000011920929) {
      if (input[2] <= 68.79999923706055) {
        var7 = 67.68199999999999;
      } else {
        var7 = 52.4225;
      }
    } else {
      var7 = 35.575;
    }
  }
  var var8;
  if (input[3] <= 1.100000023841858) {
    if (input[1] <= 48.0) {
      var8 = 100.55692307692308;
    } else {
      if (input[1] <= 64.5) {
        var8 = 73.30272727272727;
      } else {
        var8 = 92.21375;
      }
    }
  } else {
    if (input[3] <= 1.800000011920929) {
      var8 = 59.987500000000004;
    } else {
      var8 = 28.403333333333332;
    }
  }
  var var9;
  if (input[3] <= 1.350000023841858) {
    if (input[1] <= 44.5) {
      var9 = 126.91400000000002;
    } else {
      if (input[3] <= 0.8499999940395355) {
        var9 = 89.55571428571429;
      } else {
        var9 = 74.83;
      }
    }
  } else {
    var9 = 37.65933333333333;
  }
  var var10;
  if (input[3] <= 1.1500000357627869) {
    if (input[1] <= 45.0) {
      var10 = 142.25714285714284;
    } else {
      if (input[2] <= 67.29999923706055) {
        var10 = 69.09416666666668;
      } else {
        var10 = 89.14076923076924;
      }
    }
  } else {
    if (input[3] <= 2.25) {
      var10 = 48.472727272727276;
    } else {
      var10 = 25.843333333333334;
    }
  }
  var var11;
  if (input[3] <= 0.949999988079071) {
    if (input[1] <= 44.5) {
      var11 = 132.81833333333333;
    } else {
      if (input[1] <= 57.5) {
        var11 = 104.60636363636364;
      } else {
        var11 = 77.13875;
      }
    }
  } else {
    if (input[3] <= 2.150000035762787) {
      if (input[3] <= 1.1500000357627869) {
        var11 = 75.82166666666667;
      } else {
        var11 = 60.63875;
      }
    } else {
      var11 = 27.912500000000005;
    }
  }
  var var12;
  if (input[1] <= 43.5) {
    var12 = 123.86250000000001;
  } else {
    if (input[3] <= 1.300000011920929) {
      if (input[2] <= 66.1500015258789) {
        var12 = 82.24000000000001;
      } else {
        if (input[3] <= 0.8499999940395355) {
          var12 = 78.23625;
        } else {
          var12 = 58.248000000000005;
        }
      }
    } else {
      var12 = 36.81428571428571;
    }
  }
  var var13;
  if (input[1] <= 42.5) {
    var13 = 123.11615384615385;
  } else {
    if (input[3] <= 1.800000011920929) {
      if (input[3] <= 1.1500000357627869) {
        if (input[2] <= 67.29999923706055) {
          var13 = 68.45125;
        } else {
          var13 = 92.29999999999998;
        }
      } else {
        var13 = 59.15083333333334;
      }
    } else {
      var13 = 23.232222222222223;
    }
  }
  var var14;
  if (input[3] <= 1.300000011920929) {
    if (input[1] <= 44.5) {
      var14 = 118.36999999999999;
    } else {
      if (input[3] <= 0.8499999940395355) {
        var14 = 89.48090909090911;
      } else {
        if (input[2] <= 66.5) {
          var14 = 90.4125;
        } else {
          var14 = 66.49375;
        }
      }
    }
  } else {
    var14 = 36.00636363636364;
  }
  var var15;
  if (input[3] <= 1.1500000357627869) {
    if (input[1] <= 44.5) {
      var15 = 117.87916666666666;
    } else {
      if (input[1] <= 63.5) {
        var15 = 77.332;
      } else {
        var15 = 88.73461538461537;
      }
    }
  } else {
    if (input[3] <= 1.800000011920929) {
      if (input[2] <= 68.79999923706055) {
        var15 = 67.875;
      } else {
        var15 = 51.775999999999996;
      }
    } else {
      var15 = 29.025000000000002;
    }
  }
  var var16;
  if (input[3] <= 1.1500000357627869) {
    if (input[1] <= 57.0) {
      if (input[0] <= 1.5) {
        var16 = 92.44800000000001;
      } else {
        var16 = 110.12181818181817;
      }
    } else {
      if (input[2] <= 74.89999771118164) {
        var16 = 71.24125;
      } else {
        var16 = 95.00999999999999;
      }
    }
  } else {
    if (input[3] <= 2.050000011920929) {
      var16 = 61.10454545454545;
    } else {
      var16 = 24.786250000000003;
    }
  }
  var var17;
  if (input[3] <= 1.1500000357627869) {
    if (input[1] <= 44.5) {
      var17 = 112.08888888888889;
    } else {
      if (input[1] <= 66.0) {
        var17 = 85.74363636363636;
      } else {
        var17 = 92.70142857142858;
      }
    }
  } else {
    if (input[3] <= 1.300000011920929) {
      var17 = 64.45428571428572;
    } else {
      if (input[3] <= 2.050000011920929) {
        var17 = 44.57714285714285;
      } else {
        var17 = 29.53125;
      }
    }
  }
  var var18;
  if (input[3] <= 1.1500000357627869) {
    if (input[1] <= 44.5) {
      var18 = 119.31545454545453;
    } else {
      if (input[1] <= 57.0) {
        var18 = 95.425;
      } else {
        if (input[2] <= 68.44999694824219) {
          var18 = 74.69800000000001;
        } else {
          var18 = 89.99444444444444;
        }
      }
    }
  } else {
    if (input[3] <= 2.050000011920929) {
      var18 = 65.24166666666666;
    } else {
      var18 = 23.755;
    }
  }
  var var19;
  if (input[3] <= 1.300000011920929) {
    if (input[0] <= 1.5) {
      if (input[3] <= 0.6500000059604645) {
        var19 = 92.54636363636365;
      } else {
        var19 = 69.81818181818181;
      }
    } else {
      var19 = 109.51699999999998;
    }
  } else {
    if (input[3] <= 2.050000011920929) {
      var19 = 47.75874999999999;
    } else {
      var19 = 32.343333333333334;
    }
  }
  var var20;
  if (input[3] <= 1.1500000357627869) {
    if (input[1] <= 57.0) {
      if (input[2] <= 70.3499984741211) {
        var20 = 99.60999999999999;
      } else {
        var20 = 129.7375;
      }
    } else {
      if (input[2] <= 73.14999771118164) {
        var20 = 68.298;
      } else {
        var20 = 91.38142857142857;
      }
    }
  } else {
    if (input[2] <= 64.85000038146973) {
      var20 = 64.33666666666666;
    } else {
      var20 = 35.584545454545456;
    }
  }
  var var21;
  if (input[3] <= 0.6500000059604645) {
    var21 = 128.81230769230768;
  } else {
    if (input[3] <= 1.1500000357627869) {
      if (input[1] <= 55.5) {
        var21 = 106.00714285714287;
      } else {
        var21 = 71.53833333333334;
      }
    } else {
      if (input[3] <= 1.449999988079071) {
        var21 = 58.37166666666667;
      } else {
        var21 = 39.203636363636356;
      }
    }
  }
  var var22;
  if (input[3] <= 1.300000011920929) {
    if (input[1] <= 48.0) {
      if (input[2] <= 68.75) {
        var22 = 97.42666666666666;
      } else {
        var22 = 132.40666666666664;
      }
    } else {
      if (input[2] <= 66.1500015258789) {
        var22 = 85.89;
      } else {
        if (input[3] <= 0.8499999940395355) {
          var22 = 80.18249999999999;
        } else {
          var22 = 59.774;
        }
      }
    }
  } else {
    var22 = 31.12909090909091;
  }
  var var23;
  if (input[3] <= 1.1500000357627869) {
    if (input[1] <= 55.5) {
      if (input[2] <= 64.70000076293945) {
        var23 = 92.38999999999999;
      } else {
        var23 = 124.69222222222223;
      }
    } else {
      if (input[1] <= 66.5) {
        var23 = 66.925;
      } else {
        var23 = 86.20444444444445;
      }
    }
  } else {
    if (input[3] <= 2.050000011920929) {
      if (input[2] <= 68.79999923706055) {
        var23 = 67.91;
      } else {
        var23 = 52.367999999999995;
      }
    } else {
      var23 = 18.212;
    }
  }
  var var24;
  if (input[3] <= 1.800000011920929) {
    if (input[3] <= 1.1500000357627869) {
      if (input[1] <= 57.0) {
        if (input[1] <= 37.5) {
          var24 = 90.99000000000001;
        } else {
          var24 = 97.779;
        }
      } else {
        if (input[1] <= 66.0) {
          var24 = 70.34833333333333;
        } else {
          var24 = 92.56181818181818;
        }
      }
    } else {
      var24 = 65.05333333333334;
    }
  } else {
    var24 = 26.183333333333334;
  }
  var var25;
  if (input[3] <= 0.949999988079071) {
    if (input[1] <= 43.5) {
      var25 = 145.2825;
    } else {
      if (input[1] <= 64.5) {
        var25 = 75.637;
      } else {
        var25 = 97.1288888888889;
      }
    }
  } else {
    if (input[3] <= 1.75) {
      var25 = 61.152307692307694;
    } else {
      var25 = 26.011111111111113;
    }
  }
  var var26;
  if (input[3] <= 1.300000011920929) {
    if (input[1] <= 44.5) {
      var26 = 123.088;
    } else {
      if (input[1] <= 66.0) {
        var26 = 76.01;
      } else {
        var26 = 92.16818181818182;
      }
    }
  } else {
    if (input[0] <= 1.5) {
      var26 = 33.601;
    } else {
      var26 = 56.324444444444445;
    }
  }
  var var27;
  if (input[3] <= 1.300000011920929) {
    if (input[1] <= 48.0) {
      var27 = 114.68500000000002;
    } else {
      if (input[1] <= 66.0) {
        var27 = 65.55181818181819;
      } else {
        var27 = 89.21444444444445;
      }
    }
  } else {
    if (input[3] <= 2.25) {
      var27 = 53.73428571428571;
    } else {
      var27 = 19.985;
    }
  }
  var var28;
  if (input[3] <= 1.1500000357627869) {
    if (input[1] <= 44.5) {
      var28 = 117.89;
    } else {
      if (input[2] <= 71.64999771118164) {
        if (input[3] <= 0.949999988079071) {
          var28 = 96.56285714285714;
        } else {
          var28 = 79.48800000000001;
        }
      } else {
        var28 = 75.22888888888889;
      }
    }
  } else {
    if (input[3] <= 1.800000011920929) {
      var28 = 61.35000000000001;
    } else {
      var28 = 30.998333333333335;
    }
  }
  var var29;
  if (input[3] <= 1.100000023841858) {
    if (input[1] <= 57.0) {
      if (input[2] <= 61.599998474121094) {
        var29 = 92.50166666666667;
      } else {
        var29 = 117.83666666666669;
      }
    } else {
      if (input[1] <= 66.0) {
        var29 = 63.02833333333333;
      } else {
        var29 = 79.02272727272727;
      }
    }
  } else {
    if (input[3] <= 2.25) {
      var29 = 53.882727272727266;
    } else {
      var29 = 21.3;
    }
  }
  var var30;
  if (input[3] <= 1.1500000357627869) {
    if (input[1] <= 44.5) {
      var30 = 126.84299999999999;
    } else {
      if (input[2] <= 69.29999923706055) {
        var30 = 79.245;
      } else {
        var30 = 95.06166666666667;
      }
    }
  } else {
    if (input[3] <= 2.050000011920929) {
      var30 = 60.168000000000006;
    } else {
      var30 = 22.881249999999998;
    }
  }
  var var31;
  if (input[3] <= 1.1500000357627869) {
    if (input[1] <= 54.5) {
      var31 = 101.79363636363637;
    } else {
      var31 = 79.40833333333333;
    }
  } else {
    if (input[3] <= 2.050000011920929) {
      if (input[2] <= 70.20000076293945) {
        var31 = 65.58166666666666;
      } else {
        var31 = 38.77333333333334;
      }
    } else {
      var31 = 27.578181818181818;
    }
  }
  var var32;
  if (input[3] <= 2.050000011920929) {
    if (input[3] <= 0.949999988079071) {
      if (input[1] <= 57.0) {
        var32 = 99.14375000000001;
      } else {
        var32 = 79.49857142857142;
      }
    } else {
      if (input[2] <= 66.5) {
        var32 = 81.31111111111112;
      } else {
        if (input[3] <= 1.1500000357627869) {
          var32 = 68.74111111111111;
        } else {
          var32 = 58.37222222222223;
        }
      }
    }
  } else {
    var32 = 28.514285714285716;
  }
  var var33;
  if (input[3] <= 1.800000011920929) {
    if (input[1] <= 46.0) {
      var33 = 120.928;
    } else {
      if (input[2] <= 61.64999961853027) {
        var33 = 84.17142857142858;
      } else {
        if (input[2] <= 69.25) {
          var33 = 57.58181818181819;
        } else {
          var33 = 74.999;
        }
      }
    }
  } else {
    var33 = 28.215454545454545;
  }
  var var34;
  if (input[1] <= 54.0) {
    if (input[2] <= 61.599998474121094) {
      var34 = 88.13125000000001;
    } else {
      var34 = 134.64272727272726;
    }
  } else {
    if (input[3] <= 1.449999988079071) {
      if (input[2] <= 69.4000015258789) {
        var34 = 64.53571428571429;
      } else {
        var34 = 83.99888888888889;
      }
    } else {
      var34 = 47.544285714285714;
    }
  }
  var var35;
  if (input[3] <= 1.1500000357627869) {
    if (input[1] <= 48.0) {
      var35 = 115.28600000000002;
    } else {
      if (input[2] <= 68.54999923706055) {
        var35 = 66.48428571428572;
      } else {
        var35 = 84.97214285714286;
      }
    }
  } else {
    if (input[3] <= 1.800000011920929) {
      var35 = 53.145;
    } else {
      var35 = 29.920000000000005;
    }
  }
  var var36;
  if (input[3] <= 0.8499999940395355) {
    if (input[1] <= 39.5) {
      var36 = 137.90923076923076;
    } else {
      if (input[1] <= 60.5) {
        var36 = 107.78571428571429;
      } else {
        var36 = 85.22571428571429;
      }
    }
  } else {
    if (input[3] <= 2.100000023841858) {
      if (input[3] <= 1.1500000357627869) {
        var36 = 77.35249999999999;
      } else {
        var36 = 63.505714285714284;
      }
    } else {
      var36 = 27.301428571428566;
    }
  }
  var var37;
  if (input[3] <= 2.050000011920929) {
    if (input[1] <= 45.5) {
      var37 = 125.01555555555554;
    } else {
      if (input[3] <= 1.1500000357627869) {
        if (input[1] <= 66.0) {
          var37 = 75.74083333333333;
        } else {
          var37 = 94.63777777777779;
        }
      } else {
        var37 = 62.32363636363637;
      }
    }
  } else {
    var37 = 17.134999999999998;
  }
  var var38;
  if (input[3] <= 1.1500000357627869) {
    if (input[1] <= 48.0) {
      var38 = 115.11363636363636;
    } else {
      if (input[2] <= 70.79999923706055) {
        var38 = 80.035;
      } else {
        var38 = 70.39714285714285;
      }
    }
  } else {
    if (input[3] <= 1.449999988079071) {
      var38 = 62.56583333333334;
    } else {
      var38 = 34.096153846153854;
    }
  }
  var var39;
  if (input[3] <= 1.300000011920929) {
    if (input[1] <= 48.0) {
      var39 = 113.77444444444444;
    } else {
      if (input[3] <= 0.8499999940395355) {
        if (input[3] <= 0.75) {
          var39 = 77.39142857142858;
        } else {
          var39 = 100.46000000000001;
        }
      } else {
        if (input[2] <= 66.5) {
          var39 = 83.415;
        } else {
          var39 = 61.9311111111111;
        }
      }
    }
  } else {
    if (input[0] <= 1.5) {
      var39 = 28.928571428571427;
    } else {
      var39 = 59.910000000000004;
    }
  }
  var var40;
  if (input[3] <= 1.300000011920929) {
    if (input[1] <= 42.0) {
      var40 = 127.13333333333333;
    } else {
      if (input[1] <= 66.0) {
        var40 = 68.001;
      } else {
        if (input[1] <= 77.5) {
          var40 = 93.15615384615384;
        } else {
          var40 = 78.36857142857141;
        }
      }
    }
  } else {
    if (input[0] <= 1.5) {
      var40 = 27.00142857142857;
    } else {
      var40 = 48.33166666666667;
    }
  }
  var var41;
  if (input[1] <= 43.5) {
    var41 = 121.77538461538462;
  } else {
    if (input[3] <= 1.800000011920929) {
      if (input[3] <= 0.949999988079071) {
        var41 = 85.8790909090909;
      } else {
        if (input[1] <= 68.0) {
          var41 = 70.8;
        } else {
          var41 = 60.97875;
        }
      }
    } else {
      var41 = 23.925555555555555;
    }
  }
  var var42;
  if (input[3] <= 1.449999988079071) {
    if (input[1] <= 57.0) {
      if (input[3] <= 0.8499999940395355) {
        if (input[2] <= 61.599998474121094) {
          var42 = 95.36166666666668;
        } else {
          var42 = 125.92555555555555;
        }
      } else {
        var42 = 84.66714285714286;
      }
    } else {
      if (input[1] <= 63.5) {
        var42 = 62.849999999999994;
      } else {
        var42 = 84.82833333333333;
      }
    }
  } else {
    var42 = 27.36555555555556;
  }
  var var43;
  if (input[3] <= 1.1500000357627869) {
    if (input[1] <= 59.0) {
      if (input[2] <= 68.75) {
        var43 = 96.33571428571429;
      } else {
        var43 = 122.03200000000001;
      }
    } else {
      var43 = 81.3175;
    }
  } else {
    if (input[3] <= 1.800000011920929) {
      var43 = 63.791333333333334;
    } else {
      var43 = 32.76357142857143;
    }
  }
  var var44;
  if (input[3] <= 0.9000000059604645) {
    if (input[1] <= 46.0) {
      var44 = 124.05600000000001;
    } else {
      var44 = 90.588;
    }
  } else {
    if (input[3] <= 1.800000011920929) {
      if (input[2] <= 66.5) {
        var44 = 77.433;
      } else {
        var44 = 60.79363636363637;
      }
    } else {
      var44 = 31.56375;
    }
  }
  var var45;
  if (input[3] <= 1.449999988079071) {
    if (input[1] <= 48.5) {
      var45 = 118.60999999999999;
    } else {
      if (input[2] <= 69.4000015258789) {
        if (input[2] <= 66.1500015258789) {
          var45 = 79.84714285714286;
        } else {
          var45 = 56.156666666666666;
        }
      } else {
        var45 = 87.45727272727272;
      }
    }
  } else {
    if (input[3] <= 2.25) {
      var45 = 47.221428571428575;
    } else {
      var45 = 19.545;
    }
  }
  var var46;
  if (input[3] <= 1.300000011920929) {
    if (input[1] <= 48.5) {
      if (input[1] <= 32.0) {
        var46 = 92.578;
      } else {
        var46 = 121.25900000000001;
      }
    } else {
      if (input[2] <= 67.29999923706055) {
        var46 = 67.94833333333334;
      } else {
        var46 = 92.25818181818181;
      }
    }
  } else {
    if (input[1] <= 65.0) {
      var46 = 34.386;
    } else {
      var46 = 66.43714285714286;
    }
  }
  var var47;
  if (input[3] <= 1.1500000357627869) {
    if (input[1] <= 48.0) {
      if (input[1] <= 35.0) {
        var47 = 89.53999999999999;
      } else {
        var47 = 119.48454545454545;
      }
    } else {
      if (input[0] <= 1.5) {
        var47 = 85.93818181818182;
      } else {
        var47 = 69.83;
      }
    }
  } else {
    if (input[3] <= 2.050000011920929) {
      var47 = 52.325714285714284;
    } else {
      var47 = 33.70428571428572;
    }
  }
  var var48;
  if (input[3] <= 1.300000011920929) {
    if (input[1] <= 41.0) {
      var48 = 133.45222222222222;
    } else {
      if (input[3] <= 1.050000011920929) {
        if (input[0] <= 1.5) {
          var48 = 87.40333333333335;
        } else {
          var48 = 106.124;
        }
      } else {
        var48 = 79.49666666666667;
      }
    }
  } else {
    if (input[3] <= 2.25) {
      var48 = 50.15875;
    } else {
      var48 = 25.075000000000003;
    }
  }
  var var49;
  if (input[3] <= 1.1500000357627869) {
    if (input[1] <= 43.5) {
      var49 = 126.10428571428574;
    } else {
      if (input[1] <= 61.5) {
        var49 = 81.02833333333334;
      } else {
        var49 = 92.97444444444444;
      }
    }
  } else {
    if (input[3] <= 1.800000011920929) {
      if (input[2] <= 70.20000076293945) {
        var49 = 71.57;
      } else {
        var49 = 43.105714285714285;
      }
    } else {
      var49 = 27.426666666666666;
    }
  }
  var var50;
  if (input[1] <= 43.5) {
    var50 = 135.07636363636368;
  } else {
    if (input[3] <= 1.100000023841858) {
      if (input[1] <= 66.0) {
        if (input[1] <= 57.0) {
          var50 = 88.19625;
        } else {
          var50 = 64.27545454545455;
        }
      } else {
        var50 = 91.39181818181818;
      }
    } else {
      var50 = 40.455;
    }
  }
  var var51;
  if (input[3] <= 1.449999988079071) {
    if (input[1] <= 43.5) {
      var51 = 125.18727272727273;
    } else {
      if (input[2] <= 66.1500015258789) {
        var51 = 89.8888888888889;
      } else {
        if (input[2] <= 71.64999771118164) {
          var51 = 54.266000000000005;
        } else {
          var51 = 75.35;
        }
      }
    }
  } else {
    var51 = 30.775714285714283;
  }
  var var52;
  if (input[3] <= 1.1500000357627869) {
    if (input[1] <= 57.5) {
      if (input[2] <= 68.75) {
        var52 = 97.58;
      } else {
        var52 = 134.12727272727273;
      }
    } else {
      if (input[3] <= 0.75) {
        var52 = 87.62199999999999;
      } else {
        var52 = 76.2990909090909;
      }
    }
  } else {
    if (input[3] <= 2.25) {
      var52 = 48.017999999999994;
    } else {
      var52 = 20.7;
    }
  }
  var var53;
  if (input[3] <= 1.300000011920929) {
    if (input[1] <= 41.0) {
      var53 = 139.5818181818182;
    } else {
      if (input[1] <= 57.5) {
        var53 = 104.13666666666667;
      } else {
        if (input[1] <= 66.0) {
          var53 = 71.04555555555555;
        } else {
          var53 = 83.58125000000001;
        }
      }
    }
  } else {
    if (input[3] <= 2.150000035762787) {
      var53 = 41.04571428571428;
    } else {
      var53 = 23.085;
    }
  }
  var var54;
  if (input[3] <= 1.300000011920929) {
    if (input[1] <= 54.5) {
      if (input[3] <= 0.8499999940395355) {
        var54 = 136.1588888888889;
      } else {
        var54 = 86.658;
      }
    } else {
      if (input[1] <= 66.0) {
        var54 = 77.89125;
      } else {
        if (input[2] <= 68.44999694824219) {
          var54 = 82.35249999999999;
        } else {
          var54 = 96.69285714285715;
        }
      }
    }
  } else {
    if (input[3] <= 2.350000023841858) {
      var54 = 52.813750000000006;
    } else {
      var54 = 23.65;
    }
  }
  var var55;
  if (input[3] <= 1.350000023841858) {
    if (input[1] <= 57.0) {
      if (input[3] <= 0.8499999940395355) {
        if (input[2] <= 70.3499984741211) {
          var55 = 106.42000000000002;
        } else {
          var55 = 124.96600000000001;
        }
      } else {
        var55 = 89.75666666666666;
      }
    } else {
      if (input[2] <= 74.89999771118164) {
        var55 = 73.39125;
      } else {
        var55 = 91.11000000000001;
      }
    }
  } else {
    var55 = 40.22642857142858;
  }
  var var56;
  if (input[3] <= 1.100000023841858) {
    if (input[3] <= 0.6500000059604645) {
      var56 = 124.98600000000002;
    } else {
      if (input[1] <= 57.0) {
        var56 = 95.90500000000002;
      } else {
        var56 = 74.93714285714285;
      }
    }
  } else {
    if (input[3] <= 1.800000011920929) {
      var56 = 54.54;
    } else {
      var56 = 29.407142857142855;
    }
  }
  var var57;
  if (input[3] <= 1.1500000357627869) {
    if (input[1] <= 57.0) {
      if (input[3] <= 0.8499999940395355) {
        var57 = 112.75272727272727;
      } else {
        var57 = 90.26833333333333;
      }
    } else {
      var57 = 80.10818181818182;
    }
  } else {
    if (input[3] <= 1.449999988079071) {
      var57 = 64.14555555555556;
    } else {
      var57 = 35.60166666666667;
    }
  }
  var var58;
  if (input[3] <= 0.6500000059604645) {
    var58 = 139.91;
  } else {
    if (input[3] <= 1.300000011920929) {
      if (input[1] <= 57.0) {
        var58 = 93.98700000000001;
      } else {
        if (input[3] <= 0.949999988079071) {
          var58 = 67.322;
        } else {
          var58 = 77.04384615384615;
        }
      }
    } else {
      var58 = 39.03076923076923;
    }
  }
  var var59;
  if (input[3] <= 1.1500000357627869) {
    if (input[1] <= 45.5) {
      var59 = 107.29818181818182;
    } else {
      if (input[3] <= 0.8499999940395355) {
        var59 = 89.282;
      } else {
        var59 = 74.71636363636362;
      }
    }
  } else {
    if (input[3] <= 2.050000011920929) {
      var59 = 55.91636363636364;
    } else {
      var59 = 26.215000000000003;
    }
  }
  var var60;
  if (input[1] <= 48.5) {
    var60 = 123.75833333333333;
  } else {
    if (input[3] <= 1.449999988079071) {
      if (input[2] <= 66.1500015258789) {
        var60 = 86.87199999999999;
      } else {
        if (input[2] <= 68.85000228881836) {
          var60 = 58.365;
        } else {
          var60 = 79.4509090909091;
        }
      }
    } else {
      var60 = 28.794;
    }
  }
  var var61;
  if (input[3] <= 1.1500000357627869) {
    if (input[1] <= 45.5) {
      var61 = 130.87272727272727;
    } else {
      if (input[1] <= 59.0) {
        var61 = 96.98999999999998;
      } else {
        if (input[1] <= 66.0) {
          var61 = 72.1375;
        } else {
          var61 = 88.31454545454545;
        }
      }
    }
  } else {
    if (input[3] <= 2.350000023841858) {
      var61 = 49.74333333333333;
    } else {
      var61 = 27.846000000000004;
    }
  }
  var var62;
  if (input[3] <= 1.1500000357627869) {
    if (input[1] <= 41.0) {
      var62 = 123.32375;
    } else {
      if (input[3] <= 0.949999988079071) {
        if (input[3] <= 0.75) {
          var62 = 87.68625;
        } else {
          var62 = 98.13714285714286;
        }
      } else {
        var62 = 71.81166666666667;
      }
    }
  } else {
    if (input[0] <= 1.5) {
      var62 = 29.189999999999998;
    } else {
      var62 = 60.43500000000002;
    }
  }
  var var63;
  if (input[3] <= 1.1500000357627869) {
    if (input[1] <= 57.0) {
      if (input[1] <= 33.5) {
        var63 = 96.02;
      } else {
        var63 = 126.24428571428572;
      }
    } else {
      if (input[1] <= 66.0) {
        var63 = 69.75999999999999;
      } else {
        var63 = 90.80375;
      }
    }
  } else {
    if (input[3] <= 1.449999988079071) {
      var63 = 55.68;
    } else {
      var63 = 35.948181818181816;
    }
  }
  var var64;
  if (input[3] <= 1.1500000357627869) {
    if (input[1] <= 59.0) {
      if (input[1] <= 45.5) {
        var64 = 128.632;
      } else {
        var64 = 102.90857142857143;
      }
    } else {
      if (input[0] <= 1.5) {
        var64 = 83.99749999999999;
      } else {
        var64 = 74.53142857142858;
      }
    }
  } else {
    if (input[3] <= 1.800000011920929) {
      var64 = 55.08181818181818;
    } else {
      var64 = 30.274285714285718;
    }
  }
  var var65;
  if (input[3] <= 1.100000023841858) {
    if (input[1] <= 46.0) {
      var65 = 116.71333333333334;
    } else {
      if (input[1] <= 66.0) {
        var65 = 78.75428571428571;
      } else {
        var65 = 91.08777777777777;
      }
    }
  } else {
    if (input[3] <= 1.800000011920929) {
      if (input[2] <= 68.79999923706055) {
        var65 = 69.41000000000001;
      } else {
        var65 = 51.29545454545455;
      }
    } else {
      var65 = 31.5;
    }
  }
  var var66;
  if (input[3] <= 1.350000023841858) {
    if (input[1] <= 43.5) {
      var66 = 142.05444444444444;
    } else {
      if (input[3] <= 0.949999988079071) {
        if (input[1] <= 59.0) {
          var66 = 104.79166666666667;
        } else {
          var66 = 84.94899999999998;
        }
      } else {
        var66 = 74.95555555555556;
      }
    }
  } else {
    if (input[3] <= 1.800000011920929) {
      var66 = 60.52;
    } else {
      var66 = 28.732727272727267;
    }
  }
  var var67;
  if (input[1] <= 42.5) {
    var67 = 137.86357142857145;
  } else {
    if (input[3] <= 0.949999988079071) {
      if (input[1] <= 55.5) {
        var67 = 100.78166666666665;
      } else {
        var67 = 80.48499999999999;
      }
    } else {
      if (input[3] <= 1.300000011920929) {
        var67 = 62.59599999999999;
      } else {
        var67 = 41.23777777777777;
      }
    }
  }
  var var68;
  if (input[3] <= 1.1500000357627869) {
    if (input[1] <= 43.5) {
      var68 = 123.60166666666665;
    } else {
      if (input[3] <= 0.949999988079071) {
        var68 = 95.12923076923076;
      } else {
        var68 = 72.74428571428572;
      }
    }
  } else {
    if (input[3] <= 2.050000011920929) {
      var68 = 53.528999999999996;
    } else {
      var68 = 19.52857142857143;
    }
  }
  var var69;
  if (input[3] <= 1.300000011920929) {
    if (input[1] <= 48.0) {
      if (input[1] <= 32.0) {
        var69 = 94.08571428571429;
      } else {
        var69 = 121.88142857142857;
      }
    } else {
      if (input[1] <= 63.5) {
        var69 = 67.663;
      } else {
        var69 = 85.7476923076923;
      }
    }
  } else {
    var69 = 38.714166666666664;
  }
  var var70;
  if (input[3] <= 0.949999988079071) {
    if (input[1] <= 41.0) {
      var70 = 154.446;
    } else {
      if (input[1] <= 57.0) {
        var70 = 102.90272727272728;
      } else {
        var70 = 79.08363636363636;
      }
    }
  } else {
    if (input[3] <= 1.800000011920929) {
      var70 = 63.79083333333333;
    } else {
      var70 = 32.454;
    }
  }
  var var71;
  if (input[3] <= 1.1500000357627869) {
    if (input[1] <= 59.0) {
      if (input[2] <= 61.599998474121094) {
        var71 = 94.42;
      } else {
        var71 = 121.83800000000001;
      }
    } else {
      var71 = 83.39333333333333;
    }
  } else {
    if (input[3] <= 1.350000023841858) {
      var71 = 70.784;
    } else {
      var71 = 40.290000000000006;
    }
  }
  var var72;
  if (input[3] <= 1.1500000357627869) {
    if (input[1] <= 44.5) {
      var72 = 114.32249999999999;
    } else {
      if (input[2] <= 75.94999694824219) {
        if (input[2] <= 66.5) {
          var72 = 90.82333333333332;
        } else {
          var72 = 69.38;
        }
      } else {
        var72 = 89.17;
      }
    }
  } else {
    var72 = 52.787272727272736;
  }
  var var73;
  if (input[3] <= 1.300000011920929) {
    if (input[1] <= 44.5) {
      var73 = 113.94777777777777;
    } else {
      if (input[1] <= 66.0) {
        if (input[3] <= 1.050000011920929) {
          var73 = 66.3722222222222;
        } else {
          var73 = 75.46666666666667;
        }
      } else {
        var73 = 93.2807142857143;
      }
    }
  } else {
    if (input[3] <= 2.050000011920929) {
      var73 = 57.44499999999999;
    } else {
      var73 = 18.332;
    }
  }
  var var74;
  if (input[1] <= 43.5) {
    var74 = 142.8435714285714;
  } else {
    if (input[3] <= 1.1500000357627869) {
      if (input[2] <= 67.29999923706055) {
        var74 = 66.95833333333333;
      } else {
        if (input[2] <= 72.69999694824219) {
          var74 = 105.52428571428572;
        } else {
          var74 = 83.48555555555555;
        }
      }
    } else {
      if (input[3] <= 1.800000011920929) {
        var74 = 59.1;
      } else {
        var74 = 24.954;
      }
    }
  }
  var var75;
  if (input[3] <= 1.1500000357627869) {
    if (input[1] <= 44.5) {
      var75 = 112.56307692307693;
    } else {
      if (input[0] <= 1.5) {
        if (input[1] <= 63.5) {
          var75 = 78.69857142857143;
        } else {
          var75 = 87.82000000000001;
        }
      } else {
        var75 = 98.9975;
      }
    }
  } else {
    if (input[3] <= 2.050000011920929) {
      var75 = 60.323;
    } else {
      var75 = 22.188000000000002;
    }
  }
  var var76;
  if (input[3] <= 0.949999988079071) {
    if (input[1] <= 55.5) {
      var76 = 123.71818181818183;
    } else {
      var76 = 80.36749999999999;
    }
  } else {
    if (input[3] <= 1.800000011920929) {
      if (input[2] <= 68.79999923706055) {
        var76 = 72.792;
      } else {
        var76 = 51.05583333333333;
      }
    } else {
      var76 = 28.167499999999997;
    }
  }
  var var77;
  if (input[3] <= 1.1500000357627869) {
    if (input[1] <= 45.5) {
      if (input[2] <= 68.75) {
        var77 = 102.12700000000001;
      } else {
        var77 = 127.5675;
      }
    } else {
      if (input[1] <= 66.0) {
        var77 = 77.20888888888888;
      } else {
        var77 = 91.94400000000002;
      }
    }
  } else {
    if (input[3] <= 2.0) {
      var77 = 57.948333333333345;
    } else {
      var77 = 23.766000000000002;
    }
  }
  var var78;
  if (input[3] <= 1.350000023841858) {
    if (input[1] <= 57.0) {
      if (input[3] <= 0.7000000178813934) {
        var78 = 124.58800000000001;
      } else {
        var78 = 94.94777777777777;
      }
    } else {
      if (input[2] <= 80.0999984741211) {
        if (input[2] <= 66.1500015258789) {
          var78 = 87.56500000000001;
        } else {
          var78 = 61.137499999999996;
        }
      } else {
        var78 = 83.32142857142857;
      }
    }
  } else {
    var78 = 30.426666666666666;
  }
  var var79;
  if (input[3] <= 1.100000023841858) {
    if (input[1] <= 44.5) {
      var79 = 129.89833333333334;
    } else {
      if (input[1] <= 57.0) {
        var79 = 95.46142857142857;
      } else {
        if (input[1] <= 66.0) {
          var79 = 64.4875;
        } else {
          var79 = 90.18222222222224;
        }
      }
    }
  } else {
    if (input[1] <= 66.0) {
      var79 = 46.00222222222222;
    } else {
      var79 = 60.0025;
    }
  }
  var var80;
  if (input[3] <= 1.1500000357627869) {
    if (input[1] <= 55.5) {
      if (input[2] <= 68.75) {
        var80 = 93.131;
      } else {
        var80 = 115.99000000000001;
      }
    } else {
      if (input[1] <= 66.0) {
        var80 = 75.81999999999998;
      } else {
        var80 = 87.3825;
      }
    }
  } else {
    if (input[3] <= 1.800000011920929) {
      var80 = 57.32363636363637;
    } else {
      var80 = 26.977999999999998;
    }
  }
  var var81;
  if (input[3] <= 1.300000011920929) {
    if (input[1] <= 48.0) {
      var81 = 103.48285714285713;
    } else {
      if (input[1] <= 63.5) {
        var81 = 68.34076923076921;
      } else {
        var81 = 88.8090909090909;
      }
    }
  } else {
    if (input[3] <= 2.050000011920929) {
      var81 = 47.402;
    } else {
      var81 = 26.917499999999997;
    }
  }
  var var82;
  if (input[3] <= 1.1500000357627869) {
    if (input[1] <= 57.0) {
      var82 = 104.50375;
    } else {
      if (input[1] <= 66.0) {
        var82 = 66.046;
      } else {
        var82 = 83.74333333333333;
      }
    }
  } else {
    if (input[3] <= 1.800000011920929) {
      var82 = 55.126923076923084;
    } else {
      var82 = 24.745555555555555;
    }
  }
  var var83;
  if (input[3] <= 0.9000000059604645) {
    if (input[1] <= 46.0) {
      var83 = 133.05125;
    } else {
      var83 = 91.83076923076925;
    }
  } else {
    if (input[3] <= 1.449999988079071) {
      var83 = 68.98615384615385;
    } else {
      if (input[3] <= 2.25) {
        var83 = 41.059999999999995;
      } else {
        var83 = 26.547142857142855;
      }
    }
  }
  var var84;
  if (input[3] <= 0.949999988079071) {
    if (input[1] <= 55.5) {
      if (input[2] <= 65.95000076293945) {
        var84 = 96.356;
      } else {
        var84 = 147.01416666666668;
      }
    } else {
      var84 = 75.29249999999999;
    }
  } else {
    if (input[3] <= 1.800000011920929) {
      if (input[3] <= 1.1500000357627869) {
        var84 = 78.034;
      } else {
        var84 = 60.345000000000006;
      }
    } else {
      var84 = 29.18;
    }
  }
  var var85;
  if (input[3] <= 1.1500000357627869) {
    if (input[1] <= 44.5) {
      var85 = 117.27555555555556;
    } else {
      if (input[2] <= 71.64999771118164) {
        if (input[1] <= 57.0) {
          var85 = 105.10428571428574;
        } else {
          var85 = 79.76333333333334;
        }
      } else {
        var85 = 82.4809090909091;
      }
    }
  } else {
    if (input[3] <= 1.800000011920929) {
      var85 = 53.605000000000004;
    } else {
      var85 = 28.78;
    }
  }
  var var86;
  if (input[3] <= 1.1500000357627869) {
    if (input[1] <= 60.5) {
      if (input[1] <= 33.5) {
        var86 = 98.68199999999999;
      } else {
        var86 = 121.44769230769231;
      }
    } else {
      var86 = 83.1009090909091;
    }
  } else {
    if (input[3] <= 1.800000011920929) {
      if (input[2] <= 68.79999923706055) {
        var86 = 68.385;
      } else {
        var86 = 54.68285714285714;
      }
    } else {
      var86 = 31.536666666666665;
    }
  }
  var var87;
  if (input[3] <= 1.1500000357627869) {
    if (input[1] <= 45.5) {
      var87 = 123.40769230769232;
    } else {
      if (input[2] <= 70.89999771118164) {
        var87 = 87.977;
      } else {
        var87 = 74.38285714285713;
      }
    }
  } else {
    if (input[3] <= 2.050000011920929) {
      var87 = 57.11785714285715;
    } else {
      var87 = 30.008000000000003;
    }
  }
  var var88;
  if (input[3] <= 1.1500000357627869) {
    if (input[1] <= 44.5) {
      var88 = 115.74545454545454;
    } else {
      if (input[3] <= 0.949999988079071) {
        var88 = 91.50153846153846;
      } else {
        var88 = 76.05199999999999;
      }
    }
  } else {
    if (input[3] <= 2.0) {
      var88 = 50.697500000000005;
    } else {
      var88 = 19.904545454545453;
    }
  }
  var var89;
  if (input[3] <= 1.100000023841858) {
    if (input[1] <= 48.5) {
      var89 = 104.91545454545457;
    } else {
      if (input[2] <= 68.44999694824219) {
        var89 = 71.32642857142858;
      } else {
        var89 = 87.54;
      }
    }
  } else {
    if (input[3] <= 1.800000011920929) {
      var89 = 56.33636363636363;
    } else {
      var89 = 27.808571428571433;
    }
  }
  var var90;
  if (input[3] <= 1.1500000357627869) {
    if (input[1] <= 41.0) {
      var90 = 129.34333333333333;
    } else {
      if (input[2] <= 66.1500015258789) {
        var90 = 89.23285714285714;
      } else {
        if (input[3] <= 0.8499999940395355) {
          var90 = 82.92833333333333;
        } else {
          var90 = 71.50666666666666;
        }
      }
    }
  } else {
    if (input[3] <= 1.800000011920929) {
      var90 = 60.99000000000001;
    } else {
      var90 = 23.735999999999997;
    }
  }
  var var91;
  if (input[3] <= 1.300000011920929) {
    if (input[1] <= 44.5) {
      var91 = 128.7481818181818;
    } else {
      if (input[0] <= 1.5) {
        if (input[2] <= 63.29999923706055) {
          var91 = 79.82333333333334;
        } else {
          var91 = 71.06833333333333;
        }
      } else {
        var91 = 90.28363636363636;
      }
    }
  } else {
    var91 = 37.88333333333333;
  }
  var var92;
  if (input[3] <= 1.1500000357627869) {
    if (input[1] <= 48.0) {
      var92 = 113.09222222222223;
    } else {
      if (input[1] <= 63.5) {
        var92 = 67.31625;
      } else {
        var92 = 90.80272727272727;
      }
    }
  } else {
    if (input[3] <= 1.800000011920929) {
      if (input[2] <= 68.79999923706055) {
        var92 = 68.67999999999999;
      } else {
        var92 = 56.107142857142854;
      }
    } else {
      var92 = 34.150000000000006;
    }
  }
  var var93;
  if (input[3] <= 1.1500000357627869) {
    if (input[1] <= 46.0) {
      var93 = 132.08692307692309;
    } else {
      if (input[1] <= 57.0) {
        var93 = 96.34;
      } else {
        if (input[2] <= 73.14999771118164) {
          var93 = 69.91400000000002;
        } else {
          var93 = 90.09285714285716;
        }
      }
    }
  } else {
    if (input[3] <= 1.800000011920929) {
      var93 = 60.932500000000005;
    } else {
      var93 = 25.317777777777778;
    }
  }
  var var94;
  if (input[3] <= 0.9000000059604645) {
    if (input[1] <= 41.0) {
      var94 = 138.2866666666667;
    } else {
      if (input[2] <= 68.0) {
        var94 = 87.14571428571428;
      } else {
        var94 = 104.21428571428571;
      }
    }
  } else {
    if (input[3] <= 1.300000011920929) {
      var94 = 77.90272727272726;
    } else {
      var94 = 33.17444444444445;
    }
  }
  var var95;
  if (input[1] <= 37.5) {
    var95 = 126.80454545454545;
  } else {
    if (input[3] <= 2.050000011920929) {
      if (input[3] <= 0.949999988079071) {
        if (input[0] <= 1.5) {
          var95 = 78.29333333333332;
        } else {
          var95 = 107.0575;
        }
      } else {
        if (input[1] <= 69.0) {
          var95 = 73.065;
        } else {
          var95 = 61.81111111111112;
        }
      }
    } else {
      var95 = 28.1075;
    }
  }
  var var96;
  if (input[3] <= 1.1500000357627869) {
    if (input[2] <= 78.3499984741211) {
      if (input[1] <= 57.0) {
        if (input[2] <= 61.349998474121094) {
          var96 = 88.91666666666667;
        } else {
          var96 = 100.97749999999999;
        }
      } else {
        var96 = 78.18111111111111;
      }
    } else {
      var96 = 120.98;
    }
  } else {
    if (input[3] <= 1.449999988079071) {
      var96 = 64.13857142857144;
    } else {
      var96 = 43.76230769230769;
    }
  }
  var var97;
  if (input[3] <= 1.350000023841858) {
    if (input[1] <= 45.5) {
      var97 = 116.726;
    } else {
      if (input[1] <= 63.5) {
        var97 = 69.95599999999999;
      } else {
        if (input[3] <= 0.9000000059604645) {
          var97 = 88.895;
        } else {
          var97 = 77.18714285714286;
        }
      }
    }
  } else {
    var97 = 32.69428571428572;
  }
  var var98;
  if (input[3] <= 1.1500000357627869) {
    if (input[1] <= 44.5) {
      var98 = 121.8323076923077;
    } else {
      if (input[2] <= 71.64999771118164) {
        var98 = 95.07545454545453;
      } else {
        var98 = 82.725;
      }
    }
  } else {
    if (input[1] <= 65.0) {
      var98 = 43.117;
    } else {
      var98 = 68.60857142857142;
    }
  }
  var var99;
  if (input[3] <= 1.1500000357627869) {
    if (input[1] <= 45.5) {
      var99 = 118.109;
    } else {
      if (input[1] <= 63.5) {
        var99 = 78.47857142857141;
      } else {
        var99 = 88.23545454545454;
      }
    }
  } else {
    if (input[3] <= 1.449999988079071) {
      var99 = 65.252;
    } else {
      var99 = 30.811818181818182;
    }
  }
  return (
    (var0 +
      var1 +
      var2 +
      var3 +
      var4 +
      var5 +
      var6 +
      var7 +
      var8 +
      var9 +
      var10 +
      var11 +
      var12 +
      var13 +
      var14 +
      var15 +
      var16 +
      var17 +
      var18 +
      var19 +
      var20 +
      var21 +
      var22 +
      var23 +
      var24 +
      var25 +
      var26 +
      var27 +
      var28 +
      var29 +
      var30 +
      var31 +
      var32 +
      var33 +
      var34 +
      var35 +
      var36 +
      var37 +
      var38 +
      var39 +
      var40 +
      var41 +
      var42 +
      var43 +
      var44 +
      var45 +
      var46 +
      var47 +
      var48 +
      var49 +
      var50 +
      var51 +
      var52 +
      var53 +
      var54 +
      var55 +
      var56 +
      var57 +
      var58 +
      var59 +
      var60 +
      var61 +
      var62 +
      var63 +
      var64 +
      var65 +
      var66 +
      var67 +
      var68 +
      var69 +
      var70 +
      var71 +
      var72 +
      var73 +
      var74 +
      var75 +
      var76 +
      var77 +
      var78 +
      var79 +
      var80 +
      var81 +
      var82 +
      var83 +
      var84 +
      var85 +
      var86 +
      var87 +
      var88 +
      var89 +
      var90 +
      var91 +
      var92 +
      var93 +
      var94 +
      var95 +
      var96 +
      var97 +
      var98 +
      var99) *
    0.01
  );
}

export { score as predict };
